[2.2544681685886316, 0.7882071151884181, 0.36625581231982635, -0.1421981681508559, -0.33485298331618424, -1.2515630001666187, -0.6689237880978353, -1.1763674004345455, 0.14080964119000397, -0.517033777110806, -1.2996059261669564, -0.531496829762664, -0.9343639610135825, -0.5489001194264133, 1.3403685221157564, 0.7570546422612725, -0.4215210177322532, -0.16566565920279572, -0.6209385871758436, -0.06753939169896768, -0.07423802310199906, 0.11109375047653741, -0.054308087999672634, 0.6672378463725182, -0.6181668910512255, -0.08169660370832223, -0.5541507614700131, -0.14741252520822123, 1.0988287897906086, 0.2834310022584427, -0.2723932938162114, -0.2568221711063141, -1.176016024860893, -0.2519445097958583, -0.20008171772879507, -0.6057088987967125, 0.6428919874055405, 0.8673348299236928, 0.00798484135477756, -0.7019732595072674, 0.249220681804821, 0.10691741537673144, 0.9864014157922247, 0.12074955635719935, 1.1050059087079867, 1.1974816807533013, 0.8721341928205926, 0.6030385753691978, 2.0997241960097335, 1.276041679098967, 1.0045043695873421, -0.07759649612484178, 0.586570353132656, 0.26586667693862903, 0.8267324991022995, -0.0025088187505439077, 0.5588396576782816, 0.28482232690866516, 0.2595331028284825, -0.02537837213434587, 0.3383335134832766, 0.5520228217301713, 0.21860049858729666, -0.07300328195467462, 0.3544321271039324, -0.9080305409395486, -0.47456845132522907, -0.8545989358929225, -0.37374965207575556, 0.05500909345190818, 0.4257662893012217, -0.004501135868714919, -0.605949212743756, -0.02976754016712253, -0.21341707948813152, 0.3383934555217842, 0.4239430250731236, -0.12168674582722648, 0.8193517626788934, -0.32610684546710234, 0.8202309884733098, 0.6500184039953623, 0.4159712438919699, -0.9210868084839521, -0.8930581640291784, -0.3703621058755742, 0.05762421513705828, -0.11060976214912883, -0.8106845609901424, -0.29476459843625996, 0.6980737375197484, 0.27622577182093994, 0.5078277094732198, -0.12116781526259565, 0.4767539315382231, 0.9610410127253881, 0.8883391303283843, 0.4456480384358681, 0.4251920761223855, 0.582138000993924, 1.2587563077437776, 0.15869009162401096, -1.175915195980297, -0.41961178708729524, 0.6121269677660074, 0.9308744530361223, 0.751476873651971, -0.027974148390681488, 0.6605422312763272, -0.6175007267556356, -0.34965126776334843, 0.07640784246828537, 0.4008722606243704, -0.19348970457262735, -0.6014475536381237, -0.1813796576487344, -0.47894844853640883, 0.24434469124725416, -0.6697738854125089, 0.3338058782243686, -0.4679911335363452, 0.05733428476847412, -1.0293556170870481, -0.7069954139698358, -0.7904331877237194, -1.2668424959792028, 1.2487794901172915, -0.9002504232624713, -0.423785001968676, -0.11805754739589402, 0.16420370022002467, -0.7135337293161792, 0.3597632058793428, 0.6337038908363958, 0.021331852781938145, 0.09858551763539641, 0.8283326409211663, 0.4443434517484666, -0.2707822101479431, 0.49497137651860473, 0.8474301978987974, -0.06443144310232628, 0.42464791811435554, 1.2910286647587013, 0.011712443858719916, 0.12284570999488402, 0.4922982235232206, -0.3063722622671092, 0.7322599109849813, -0.32062429158346367, -0.09356860576166047, 0.1509145790512331, 0.1817174206767178, 0.7090241767684369, 0.8369873772612031, -0.1507120496684203, -0.5943070906107205, 1.8237063606916488, 0.7555386583913075, 0.4624745232162519, -0.1515506716004533, -0.3331078230666708, -0.44467860694136346, -0.23012499766835828, 0.9193366639670095, 1.2408703630022473, -0.7966721641988486, 0.3154772390009426, -1.6384729594049068, 0.14933826240805614, 0.3114182761650251, 0.012175535176780097, 0.858632933277934, 0.5839140520882896, 0.3419445895382513, -0.12794390324868082, 0.19869323997683974, 1.470050831724934, 0.504017175795764, 0.5320611802525684, -0.255225690542408, -0.17839133571089522, -1.1074560975441825, -0.5553636718058166, 0.4031571514710222, -0.37173800570034043, -0.598270438026485, 0.22684225211170192, -0.3847506606745954, -0.500043472127966, 1.0265726336253416, -0.6390867136958933, 0.647630767724579, 0.04979643585589033, -0.9579291172855345, -0.6499556923794982, -0.8763924704232816, 0.6843126945747252, -0.5734256222258615, 0.15424508646575422, -0.6306907193012274, 1.3210254411398523, -0.40752086466069104, 0.8008612755855651, -0.6558107948901248, 0.8465529516384762, -0.06887212192523116, -0.11862315791089767, 1.09013016557254, 0.2680681952935895, 0.47098200948668123, 0.5324583811391832, 0.4055142733932556, 0.3620597860007227, 0.05050169893969957, 0.1441711877580001, 0.8699345153006376, 0.7150125836913792, 1.0481952800856722, 0.9455246277696335, 0.43758127779044415, 0.6824694219785188, 0.22966106405156655, -0.7749030780044772, -0.1769446344381005, 0.01706792738060227, 0.2552003630472202, 0.39754989833827165, -1.0608417793095337, 0.2589764398427497, 0.3756619264872259, 1.0025519625085577, -0.33521966921921525, 0.3272236409070347, 0.24795792943386677, 0.6619910013858233, -0.8376518473874711, 0.13389223530827027, 0.8909117005817532, 0.8985764734013366, -0.14416842864076812, -0.09134778352633662, -0.23040766836912446, -0.46369376588513456, -0.1848220292679204, -0.8537351499985811, -0.5296958505757918, -0.6056718270168336, -0.3648957841118181, 1.1246348367472363, -0.09174658840646799, -0.677799091008788, -0.46917423416679715, -0.24085019685579087, -0.9632790816215254, -0.6960033657090499, 0.40414652017419583, 0.30426536708969404, 1.7577752963557975, 0.560383312160893, 0.8439822283819255, -1.0133479756754913, 0.31478379492255426, 0.11551682095007712, 1.0299595274908533, 0.967613175267701, -0.1754848991457152, 0.3384206067049526, 1.45121621784416, 0.3195861481859263, 0.28521246803910405, -0.4605436574275224, -0.04335920749181573, -0.185525557008213, 1.3635034744160082, 0.7177704557963689, 0.16770987938446305, 0.33884513511644443, 0.4800357972200695, -0.33011959777498673, -1.2042142528968518, -0.015115207154593796, 0.7827915646724278, -0.11873793077206941, 0.2985539206172195, -1.0182764619350755, 0.22533147319150157, -0.7352178211028623, -0.029804157826129832, -0.830863181004091, -0.688412176480176, 0.020056182121187347, 0.7295544446524675, -0.16747718287978836, 0.032956469170533104, -0.2717742238782389, 0.10511426492192906, -0.10294496414402039, -0.8334567242076021, -1.1127572484017503, 0.6038358317667687, 0.4261089867558593, -0.6841737261844999, -0.4632411168985672, 0.8011509243866212, 1.292824215664635, 1.4324444326685664, 0.4249920694905035, 0.9826441284884763, -0.5241234073605401, -0.6829766289651894, -0.38165336865725996, -0.39669554595484036, 0.7797156432245788, 0.2325581404422094, -0.020185189624107355, 0.5033855667478228, 0.6503025602644614, -0.18336025860022975, -0.2543889748559154, 0.07829628022782255, 0.2907725286121644, 0.06843003584685607, -0.06723065789968015, 0.3011071818014761, 0.5894385139469379, -0.8656439524302842, 0.2188413569390491, 0.41816378039480684, 0.08971378682653573, 0.2835970390717911, 0.7953563153956006, 0.32710732982395435, 0.0446559179165508, -0.4288241016750884, -0.06281160546555449, -0.2291023190246294, 0.2515742978426877, 0.27834813224109856, -0.05770119041565928, 0.7924835391752011, 0.5708865633922202, 0.8001941567035251, 0.4639135329372084, -0.014205255727982646, -0.9014451306764109, -0.751354016232065, -0.036278563525600896, 0.8179779162491498, -0.18989313473599512, -0.27418630793864956, -0.26235669731704847, 0.07703080671372142, 0.5236692244520238, 0.6970804987974357, 0.30877171167592393, 0.017132159523347294, -0.557022723812763, -0.4969630343997054, 0.14873768595167883, -0.393499857929413, -0.23179006997331061, -0.17649370009533571, 0.36416668649088907, -0.9301919553457026, 0.04128723914263664, 0.5267105253003211, -0.8860352913501961, 0.6421780543948383, 1.0998309431245568, 0.7482588652322552, 0.19822859551847144, -0.2936797590081021, 0.7246170631859641, 0.36070518900276616, 0.2542060094656019, 0.7888025023250723, 0.27861715158831446, -0.6040245357974333, 0.4679299304343085, 0.0630926180980657, -0.278027947752217, -0.5066179087360926, -0.7630342049833949, 0.2553658367564812, 0.6490495602714563, 0.6160515881418848, -0.7361765784260371, -0.0883594279401059, 0.9454422571190738, 1.3194150636945943, 0.9720758160755824, 0.5035271337369704, -0.9522899361223417, -0.5257782835204033, 0.46866244296610726, -0.7446995678430702, -0.13303437110458372, -0.4031804662901812, 0.3702669452496761, 0.6016779908116988, 0.9885963953827394, 0.4622664452669501, 0.2998539041956564, -0.10930518913097272, -0.5824105741902731, 0.48975931772116477, 0.9731952521825719, 0.5290613343945122, -0.2913599480054927, -0.26219944105510024, 0.04832105709063001, -0.04728453226214468, -0.7429832722953459, 0.07296845403456333, -0.6334221775076344, -0.26730295674431387, -0.6850661431608496, 0.9058615889995953, -0.22745538289155467, -0.31716443796153965, 0.47638658419860475, 0.5184170547791067, 0.625103267998637, -0.6275663531499501, 0.47693529008127694, 0.18260143591576486, 0.7532115003229457, 0.8076391431329686, 0.06874474525904434, -0.6397497352667214, -0.3343048040111563, 1.225387982549046, -0.783634411295941, -1.2049691705867551, 0.3612362172062347, -0.08270910227441396, 0.21634628677814577, -0.04502041721225709, -0.4345223355950112, -0.8989255963237198, -1.613509174469698, 1.1213958569337807, 0.025961866259146562, 0.10276517379851939, -0.3828137334745274, 0.3088678991988662, 0.8388760980317443, 1.0753668324219123, 0.14653181418958977, 0.45646043370763806, -1.2029059412900498, -0.2332100534826677, -0.045525406775600664, 0.06065327971490521, 1.356406578282711, 0.21135358778434726, -1.4028855203449175, 0.7314578776268746, 0.38496059083138195, 0.6669066325194082, 0.5333696682493819, 0.035436931635596206, 0.175362045538788, -0.569770860143517, -0.027715815717334648, -0.008937165393505324, 1.089817451003274, -0.2918928570946764, -0.29276053475854824, 0.48816699390195, -0.18938135252864458, -0.76036461666015, -0.3275393914152143, -0.34701400147501626, -0.8839626245554856, -0.33457748440835183, -0.3498322287803869, 0.40958677748244793, 0.14590722407454945, 0.20789325291554372, -0.29747706518998024, 0.3131610578414369, 0.5808575696809778, 0.36929321935062137, 0.41127654351273135, -0.36003052353261283, -0.8768861341482281, -0.17176435001529783, -0.2966858987066711, 0.40158775953242537, 0.6641264706997875, 0.35877904275904177, 0.2457533967821419, -0.8821447813351828, 0.7457315050685781, 1.1957668377970965, -0.03545511104961021, -0.8374494262692099, -0.8754901785659263, -1.3154364462489017, -0.9764605917134732, 2.1755307484520507, 1.570743832576053, 1.061572565082752, -0.3644090233527363, -1.1076121426903751, 0.24542415755065625, 0.016164912433697172, 0.10693518716078482, 0.5250638396194595, 0.04235985454077689, 0.15653845459414506, -0.5035510587851207, 0.933422047079796, -0.6366842243095289, -0.37291061833453365, 0.052804629898094015, -0.00971306127644046, 0.4507532013814444, -0.677888244010828, -0.5999084708375703, -1.233553225143098, -0.4678112688010337, 0.18094655055652986, 0.8018774909110205, -0.7892788689692958, -0.2688512314241063, -0.6951599320498019, 0.3782330620504334, -0.3017899076684007, -0.6016046858485651, -0.5985361832471732, 0.24444964266721075, 0.485605944489804, -0.17714379093014218, -0.38804434703902735, -0.4314984813753499, -0.2951268947546345, 0.6834414575432589, -1.0342895930932317, 1.0197734078086427, 1.0448709206464617, 1.0453206112401499, 0.08483822724714936, -0.08939443999250982, -0.07263975694304585, -1.862727781803701, -1.7690505164751489, -1.5416190756545765, 1.4813010733234937, 1.8560049291166891, 1.6587069025172978, -0.7084792522323526, -2.241876210694659, -1.827615338478394, -0.3269690689798204, 0.2007959971757842, -0.06615915431233271, 0.5867544924011505, -0.5073788811352528, -0.4014601793195431, 0.26556733171538904, 0.6187417112815928, 1.3632164309494568, 0.8930543590481516, 0.18727458453299953, -0.018467677456215883, -0.8998263411797406, -0.06871941069939647, 0.05843326472674416, -0.4066310145951705, 0.46350258566012703, -0.4499508335630731, 0.49094676398329806, 0.0026031205492052486, 0.6569071100560956, -0.8686442243160744, -1.1533778784069653, 0.6779443637828124, 0.04234744157981782, -0.46274169013826527, -0.9649150240667362, -0.5488323322913171, -0.24115293742651278, 0.6647819810615563, 1.9843684271708104, 1.6186038916342413, -0.2570804310167155, 0.0951674861725896, 0.5240608566306327, 1.257800649192761, 0.3886989295277473, 0.7122121909128665, 0.30572620246848004, -0.6165129079401545, -1.19290153394546, -0.4867112922785637, 0.24603471830617568, 1.7791169390819974, 0.35549821719941166, -1.1580283895124115, -1.6162844568298178, -1.7391046973791915, 0.019833818515107793, 0.583066358134572, -0.33810613887816304, -0.6756408155576036, 0.19264677044291426, 0.34901149183104635, 0.4481487776772046, -0.005787373068233157, 2.1636672305747973, 0.4311000273430664, 0.5874164074694809, -0.13481638470430077, -0.18954201775494028, 0.36475900944190925, -0.2475514976790813, -1.5792663925963826, -0.3221432935637652, 0.8943516292310004, -0.07991520281860298, 0.5230322046141659, -0.21034344345350048, -0.3691381921280801, -0.6658038358582734, 0.6672372034930305, -0.18866681833795237, 0.0965078532910582, 0.03347008847323549, 1.259745844870165, 0.02841806122914166, 0.1825547544859925, 1.2657313150745682, 0.4313828086859813, -0.4317765631035571, 0.700826188484005, 0.3997543927368824, -0.5351529282189407, -0.699822532293765, -1.0352846260926447, -0.42255634021722, -1.486588576523067, -0.951328350675067, -0.3202453431662924, 0.13649243246961565, 1.0228395446849277, 1.617464723353825, -1.3938912475870497, -1.0779731161472001, -0.779212901591381, -0.3268104939473178, -1.0688261267951134, 0.6567282249068053, -0.33258126435147006, -0.40403441717634153, 0.5024564533437407, -0.613628469414976, 0.08104538438911564, 0.016408543471127503, 0.15549797671686189, -0.14124619553248746, 1.6321556509157062, 1.0521276190627098, 0.547226842235808, 0.47375781899419095, 0.39058363431161935, 0.3149572788164694, 0.1836513351510325, 0.6567668243697441, 1.0820974271737323, 0.971496473233143, -1.6411358352976713, -1.1571971154352902, -0.4057944030086995, 0.6441063874359235, -0.29037442260466867, 2.4646078257655724, 0.6581800838573286, 0.11232881933128276, 0.28733507730556385, 0.5224276676870713, -0.466407058725461, -1.5608154033497745, 0.12874672268072476, 2.439035158918515, -0.20897127226510007, 0.2646132743694137, -1.1646825126354978, -1.1574111074190534, -1.385739809216824, 0.06996812046348617, 0.17312727793810492, 0.5213311149258374, 2.062920878748492, 0.8680632101256961, -0.6426835615075627, -1.0047162920427455, -0.7219493891621311, -0.04157671043890073, 0.3788636144317387, 0.24095470529815805, -0.4269151968268279, 0.9472309091973269, -0.4492735503497535, -0.24727386407715835, 0.0010742166236221622, 0.44447309267449875, 1.0231073945521887, 0.17761234137113757, 0.26836988428545167, 2.4749832997376213, 1.41319687298026, -0.5399973353101241, 0.7580206938899742, -0.7146259873490071, -1.1316232839185063, -0.2634855200525428, -0.7847982906515476, -0.043922655733113866, -1.2805794459138362, -0.014557351433570127, -0.7438150859730364, -0.6372298744718208, -0.39084856821143144, -0.5887216830871157, 1.7819088076871907, -0.24674789933079253, -0.20894128387730784, 1.046019383908932, 1.5990097433889658, 1.4322718058916166, 0.9347523385520231, 0.2850568913577211, -0.36193307738216063, -0.4746512027496143, 0.07569349481400506, -0.15601710051065373, -1.0829441181586732, 0.6161003139679313, 0.3123934164982474, -0.2381637404497598, -0.13228975563591627, 0.4218721714448806, 0.039520066940051855, 0.6678132956839853, 0.646784290441663, -0.13587640995451683, 0.84458396298489, -0.12063146495190072, -0.898561234772359, 0.46765811483881725, 1.7385385015687327, 1.201090521380913, 1.505044515716094, 1.128202297380772, 0.26388563778431307, -0.7506965437132037, 0.2773129634176601, 0.5713546800684542, 1.2975925067209808, 0.23710784295519674, 0.03494804797221075, 0.4026510048441967, -0.34917764157981185, -1.3144411079285125, 0.45505841751596954, 0.6665036502252912, -0.25241498494385756, -0.009142830321618492, -0.4310650258447993, 0.17904110215841562, -0.23379621025852498, -0.18255075030220905, -0.1752798322867602, -0.1591721439637276, -0.1147358340875558, 0.27717812029582467, -0.8378792209102778, 0.4195344071473068, 0.6866676738794303, 0.5071855048856234, -0.9890966663745779, -0.18202522960876807, -0.38050762673881394, 0.5143521548839055, -1.027374828780522, -0.1343472192632592, -0.45783743741402705, 0.5039534958703236, 0.17409097262724557, -1.7461705430278978, -0.26031443228623974, -0.4025503180651925, -0.18956310926504594, -0.9126589289876994, -0.72583554129013, -1.4163279405640823, -0.6880608144762731, -0.26330586799072797, -0.05892404869040682, 1.187470570959018, 1.443077961613187, 0.6450267355691895, -0.13176869363378818, -0.9518240249555723, -0.7473649354798334, -0.6090845482565074, -0.4659396904260842, -0.5600436568809778, 0.4977193098271441, -0.6006905082241246, -0.15397644884027906, -0.06557340032459073, -0.040924366147201796, 0.42277390654068314, 0.04550979852826519, 0.5868136301533183, 1.5753970783064282, -0.006549831362269, -0.23682085397773148, -0.537721128263234, 0.6820367273112653, -0.3537608000457032, 0.51596696473424, 0.98218703265986, 1.2795257286226367, 0.08620160895368563, -0.16330427931411165, 1.048735212971872, 0.5631734048484001, 0.07686487989459564, -1.4623671560010667, -0.5459761778328529, -0.5492712492901973, -1.2373013460845803, -1.5520295551450018, -1.4487511240863313, 0.8833063117887893, 0.16747537442682703, -1.8256247412972872, -0.8065727705623916, -0.16824228348577985, -0.8187380844051425, -0.16855164099325548, -0.6730295811241568, 0.3478306509473042, 1.2784733374259918, 0.7754777704301933, 1.0043210004836978, 1.0626075743469736, 0.5569240493829164, 0.12230558197742525, -0.17652093169231817, -0.1969034859573979, -0.12030121701471222, -2.158661994564972, -0.48512739446090436, 0.1465683222619279, -0.7406415180885284, -0.19756100603235063, -0.065521324033851, 1.0207014620510197, 0.0681855729020142, -0.34397875254511096, -0.693359244463952, -0.3410586874755428, 0.0717643840891221, 0.6765191477346274, -0.33118924675931494, -0.3666484864468393, -0.31516266348216454, 0.258466178292834, 0.45224090228370617, 0.2213078556475266, 1.6552275251513056, 1.7441881883767247, 1.3243515468105929, 0.8914190772680266, -0.7852181919269178, 0.2818028216215645, 0.3060755475760682, -0.3622431145368437, -0.35003111093762557, -0.6751797002330424, -1.0799966311479587, -0.040458133635928456, -1.637826807365101, -0.23271118536623786, 0.2446452127337124, -0.5819803927325223, 0.6805937400665192, -0.7169237384697762, 0.16884227232549648, 0.03945621531062446, 0.225356499974096, 1.045423821000716, -0.30490271458945584, 0.8631573439455502, 0.9156648018497042, 0.9066497552333971, -0.4431857238415069, -0.5561366874486445, -0.9712290134845468, -0.5350444574565709, -0.13384858078990344, -0.8983491601681596, -0.25157336650272294, -0.3466685966470134, -0.5424218858169949, -0.6248769203441736, -0.08500763707896, 0.10976434348484508, -0.1573466209626054, 0.18099705608346517, 0.2629669845136956, -0.348860512222546, 0.23676957417348693, 0.12942280522018856, -0.1647382822461505, -0.44492989764564483, -0.3199834260807883, 1.6255144659653333, 0.8647667083098678, 0.35271730452214733, 0.0653774592651564, 0.5841655464334886, -0.13357938663220145, -0.3404388309054715, 0.9955512275739222, 0.0657466385967062, -0.669208083364071, -0.046065489357475745, -0.5022172600393261, -0.12965930790803423, 0.4597724559076261, -0.4640752945833885, 0.14102376140089323, -1.1304298716515975, -0.7997663619303604, 0.6393283417474955, 0.8002456857412246, -0.2128026810401388, -0.6909411948708646, -1.1253435135162724, -0.16815319107066837, 0.06650190855410817, 0.23229341153208213, 0.11866692426953694, -1.8144969402528857, -0.0015075629718448668, -0.1871791809526187, -0.3928641258634007, 0.7848055743596947, 0.2865642877136661, -0.22534039469394726, -0.30759710805874196, 0.23340376195791832, -0.3033317680126444, -0.099564957640586, 0.21590766533600336, -0.8103650490317175, 1.3675673148544507, -0.10591508275765084, 0.4365951594876742, -0.1651928584665824, 0.6657137355390995, 0.019938603277782685, -0.897607872101322, -0.8569011707013239, -0.3765677747187711, -0.6888815926916191, -0.11715480625904348, -0.16443116393841303, 0.6169164322669762, 0.14500699644888163, 0.2084442954973404, 0.9473956184444444, -0.9883007177705239, 0.05164305711489141, -0.011828009043468923, 0.07810993913217805, -1.1835554329438949, -1.4295374182586076, 0.7035463845874872, -0.15216906498864358, -0.945907544866472, 0.5463857640843708, -0.040530326799666616, 0.5957921526642479, -0.11475976356529845, -0.7041274783376156, -1.0567539079009072, -0.4528181374051373, -0.2445960283165851, -0.8599021006755464, 0.021218003628931427, -0.18453911285526187, -0.36387566206894184, -0.2550597846608741, 0.4666222487156312, 0.4148782351822258, -0.7430741831319806, -0.15781573178081748, -1.3202304500049402, 1.6534913137075942, -0.33030520207310954, 0.15809344404685544, 0.052578465030920805, 1.4717464666426232, 0.6205296067682943, 0.2881626921537688, 0.23395931989433943, 0.13735052873587525, 0.6481004003184554, 0.230168427772746, 0.21828871331735855, -0.20690024148047648, -0.6014189919629224, -1.0249586462646152, -1.5487875342978838, -0.6821457365077983, -0.91317881456577, 0.6707963579449869, 0.785619453697709, 0.5023438663347488, -0.02808521920158048, -0.7978096642605857, -0.1673894107012991, -0.7628713790339113, -0.47509270724380886, -0.7085584109809842, 0.04364921058427861, 0.5288604539297396, -0.7413494641186676, 0.6387354852868182, 0.2886289356460404, -0.003887074173352481, 1.2177760772368762, -0.27808847291710975, -1.3669871460090595, -1.2658369065105004, -0.9669140630340984, 0.7858296559922179, -0.4494961332759028, -0.6095688359680796, -0.14137251736231116, -0.5185483462934615, 0.6827296901835909, 0.313302365364423, 0.08680881612419193, 1.27908811061115, -0.3895894608763346, 0.38043956507526105, 0.27494486961114556, 0.15195219776925473, 0.37639693145778996, 0.18149512704226792, 0.5932893263049359, 0.6628075459148144, 0.5565104290239962, 0.1526387027456298, 0.36896933091415113, 0.2973720169811081, -0.5094310724235952, -0.8574945497425627, 0.05670446962960592, -0.9887096250993381, -0.13967684935727628, 0.14150195084463307, 0.033306645044425987, 1.833711328188683, -0.022971522735268587, -0.6674805575604383, 0.4503729667591095, 0.6826935034315795, 1.8240748270675158, 0.27227988672709275, 0.09277703055991741, -0.3727553424530053, 0.24428722119008364, 0.8480059454345942, 0.9577245814973726, 1.7643938183857277, 0.8673154558482278, 1.0093864019436811, 0.8723293265027023, 0.03992306500143887, 0.5450138450501807, -0.0756118093291436, -0.03273624571479127, -0.7240464868610825, -0.541489723139373, -0.8215430505704482, -1.0064589968820228, -0.5903024859547044, 0.6080670521762988, 0.9223218211017287, 0.1927283516563597, 0.28713958236317455, -0.36897371998162876, 0.94373909511812, 0.6731256059679359, -0.873083817629807, -0.8606141745609849, 1.0785522771932652, 0.3197106706432519, 0.22988465937793784, 0.7933542433078089, -0.5591530800507881, 0.3974806930550736, 0.8663082505433752, -1.6162086555642652, -1.0773389137455156, -1.0095072747327785, 0.33338837582033415, 1.1317517491665863, 0.9094785913360511, 0.937983381627448, -0.028780203588050935, -0.328944934137831, 0.07160246004948899, 0.7581536971248903, 0.784474521512942, 0.3211153869627511, 0.34125507387422105, -0.32670886081863615, 0.6240071315664499, 0.2758753136832249, 0.6333705457027666, -0.23704534492006285, 0.15295819773223987, -0.2654993023968928, 0.7075116979102898, 0.08871762281640685, 0.9895892682516544, 0.7738476518942732, 0.23515135552161284, 0.8227691925776364, -0.5211857912437595, -0.3371310264846844, -1.2577699511190494, -1.3317397138494589, 1.1187309106837167, 0.47241178822004165, -1.1404837415635127, -0.41391777822746584, -0.4526111848801971, 0.5753294059376299, 0.49399584381805733, 0.24473953777693702, -0.02565804656897115, -0.06790940515200079, -0.657242621042257, 0.9358304971853834, -0.04169811887265075, -0.5084455740154112, 0.10602873854492817, -0.29925311476085414, -0.49181554204154976, 0.07916917361496394, -0.43063003580306514, 0.09626405306914193, -0.4912380378842835, 0.28958417889919436, 0.23233633440753057, 0.821902884166865, -0.9455425120071665, 0.15032193721468373, 0.34845293132615546, 0.7176900020105992, 0.3791746716993826, 0.9130582184805895, -0.42215546206921784, -0.7730640663523589, 1.3608936657413961, -0.973464569439443, 1.0053639344345984, -0.30292976207216893, -0.019413849821770985, -0.29642716914551537, 0.6368004378425446, -0.012465668183455259, 0.27066655706191217, 0.42869001531714324, 0.11581179723436752, 0.5606369455088908, 1.6859357271087374, -0.38939185398056775, -0.5697028073841128, 0.6080185685824201, -0.8455881126484975, 0.3528607616753928, -0.2622083116689831, -0.118935024029854, 1.036429607409491, -0.9950113599909314, -1.4954014345955255, -0.4551452699887484, 0.007520469478582704, -0.6216627080659849, -0.12805419336613555, -0.47938241101233814, 0.38195346189629137, -0.3404976178483631, -1.0257502802311411, 0.23129118336398985, 0.22790883364287914, 0.2068076628201306, 0.1719754673077674, 1.145013611770471, 1.091555805488107, 0.10516668199817483, 0.15568977628580355, -0.015573601232825208, 0.2332744255693621, 0.4027548170772338, 0.07697459379042515, 0.539324264485444, 0.30106399266666406, 0.46610646250542537, 0.5912257467005447, 0.7713731748971178, 0.6886807927636599, 0.4639617785083389, 0.1464146009019571, -0.052852264656602435, 0.14352644117860713, 0.9723788372380221, -0.03776626048634082, -1.3501615380765706, 0.334394216639986, 0.4312247249632952, 0.3867114627262158, 1.5281182848490664, 1.943488266315934, -0.6581725736544823, -0.2902355769005322, 0.7280931285768557, 0.43059269759977753, -0.4291611384597471, -0.3062560713490024, 0.28677161254917943, 0.11431988098695679, -0.022152257410946636, -0.8093717588236011, 0.6977594482531638, -1.2735624444412914, 0.17610000886182964, -0.6449657511428131, -0.5242314754650252, 0.6413025357001133, -0.7026880636173428, -1.6011851791951504, -0.7250044694144545, 0.6982013873942062, -0.780388561275284, -0.4639610101348143, -1.3219107948662074, 0.6316408535812466, 0.5032150455043242, -0.14780826127489832, 0.17848977635581315, -0.305222237425702, -1.265557766144362, 0.6172414150479468, 0.5881672437097278, 0.6356423018777926, -0.46092957680180685, 0.5359247596720427, 1.2618126970678694, 0.831738951462611, -0.3862182437221895, -0.250229695246032, 0.723263053207754, -0.036242557549369246, 1.4818676323594024, -0.8457160768583292, -0.07328054660389718, -1.191507216088317, -0.7145278630332274, -0.37144184925810353, 0.565101017124967, 0.4476650335185438, 1.3375149649366298, 0.6477177817586302, -0.28184193113202705, -0.14582037658792493, -1.0531584214229814, -0.06271091963974038, -1.072748382616986, -0.5988678672038567, -0.2255968287272752, -0.18880284548681034, -0.5918358149567594, -0.6814822055172121, -0.9484647375730956, -0.5764291052316666, 0.3255071499140176, 0.020842123147535866, -0.37793322856204314, -0.8212092057611386, -1.055100396307957, -1.443821482433449, -0.7818221827891882, 0.289278366913196, 0.9661995265636026, 0.41980176714973133, -0.41895503436362036, -0.3038788600128014, 0.1097826192138835, -1.0255126135307826, 0.2626483844485347, -0.8638631568059119, -1.4923793152829992, -1.4610704952055713, -0.38995521646329667, -1.7615505123707202, 1.2130063391808454, 1.0873765197556031, 0.4211189973458608, -0.19709910188567945, -1.0008688890457982, 0.027913062388623257, -0.1193519571273247, 0.12393876087162777, -1.351574139826003, -1.2857293642713743, -1.889074011488642, -0.27199202035813463, 1.0435217202433686, 0.6441569133147282, 0.023117664737938047, 0.34176050623556303, -0.8118069392315622, -0.08328757057044221, -0.17201582039409857, -1.6334576750473713, -0.1215639393646005, -0.674666751542629, 0.7801981920132717, -1.1298874316136311, -0.369697360678038, 0.7202683766402849, -2.1678062387259915, -0.7021379204672108, -0.06514330784576348, -0.0029378604266042142, -0.1335541595723791, -0.45333550594585126, 0.3264529759281566, 0.2498373882627165, -0.9276266401356169, 0.23475941291287575, 0.605817084705501, 0.8330532574213824, -0.2510729018776811, -0.6169907492188683, -0.6550212246070903, -0.6994886320240753, -0.9230857153836227, -1.019593256389428, -2.1948603501668615, -0.23703936129561962, -0.4228424406596118, 1.0720844849035294, -0.29338779742144294, 0.2189162746711029, -0.46080458376152433, 0.47889248282544455, -0.31839566073444137, 0.2600431751513725, -1.9432324020530853, -1.9015473482408929, -0.5874603339349771, -1.2210680783066301, -0.9128137549072726, -0.2037679310087787, 0.656401450662394, -0.6674329546280431, -0.02411978091239203, 0.27066102204027653, -0.6344886728113869, 0.24629552938860214, -1.1743199871655732, -0.030545970813334294, 0.37419688579597793, 0.2284040105858301, -0.16339573873124147, -0.13730731485109224, -0.15522510794456934, -0.48631350185805794, 0.07573528778872629, 0.28025073867954675, -0.2970600125196333, -1.2220026402160729, -0.3083495675678835, 0.21982642722096213, -0.4402038226336481, -0.14553345039557739, 0.064689889104799, -0.6099133619992902, 0.3401893021464592, -0.7560938697415837, -0.6702011613341717, -1.0386940841187104, -1.7236936236011968, -0.8624745735757765, 0.08006768542007127, -0.3749137288058443, 0.30826700858654515, -1.3326181909728378, -0.09252752046481609, -0.3070090858518252, 0.38920334499459874, -0.029548771530541067, -1.2165085989049775, -0.09988213520373339, 1.400965380962126, 0.2565975344013441, -2.226059407273002, -0.9313880346733469, -0.4892807728072097, -0.501084625967725, -1.5495453615142565, 0.2738846143488683, 0.1308132694025836, -0.6422729273934616, 0.6854042918405462, 0.5778803676653264, 0.07559637073669173, -0.2030695171385097, 0.12416132026568734, -0.5163547109752051, 0.7356080141587309, 0.17440383283633257, 0.14659590437001935, 0.7333423134579079, 0.6621446083077769, 0.3806003489571117, -0.08236645915061895, 0.2888242884028613, 0.12824753331854896, -0.8219339886349778, -0.22772052758696995, -0.8759951959566515, 0.22477331011619955, -0.8103652702676584, -0.06258207752603216, 0.37700499711382146, -0.19014777433828717, -1.0390577582196032, -0.6796029820893627, -0.2504908140251162, 0.7487992469263878, -0.5915568291977165, 0.3553703964244546, 0.38340529813629226, 0.7660313811053172, -2.0337428210182704, -1.0084091630389138, -1.0636691647144132, -0.9084604881248723, -0.044094327932244076, -1.203194287656023, -1.2151809121393014, 0.2652358101019029, 0.5919177350751833, -0.17912167482088495, 0.290386626051135, -0.04033748224545294, 0.39572630989398927, -0.6568900569971241, -0.39605612050070993, 1.028051101080578, -1.2773810163923223, 0.34950844366660444, 0.3328727368149182, 0.02864685826950943, -0.21187591464694858, -0.02509830723413899, -0.23524091722521057, -0.7207417347936613, 1.1792528807791418, 0.3927768902988207, 0.3011344489156274, 0.015705069192971585, 1.1315610543976677, 1.6198515035392862, 0.7570566747463908, -0.000857468556335895, -0.0934877658983312, -0.03770666545862745, -0.5487146278908196, -0.3112589062802598, -1.087125699501382, 0.7936792947014203, -0.795729727904375, -0.676171727313298, -0.6599776859864752, -0.2605698177588702, -0.6840948803015886, 0.7028121692427881, -0.653224674512425, -0.5481166583579705, 0.3681797159357267, 0.3387982180858346, -0.40505372319858923, 0.7695014004925597, -0.35305465360677163, -0.5459533024272972, -1.290141162382543, -2.2618218882900782, 0.6308030836686068, -0.4409310537341649, -0.2553278606742573, 0.6787281577174525, -0.4930076567567448, -0.15858497722743006, -0.5583746867130676, 0.041950912774744054, 0.7485765055419873, -0.050157705168337986, 0.24614827808679116, 0.36115049288001844, -0.7457977019030433, 0.30221591422338556, 0.24828967046446918, -0.6054526321886209, -1.3505611551622734, -0.23272255968859257, -0.13643053153352683, 1.216178780605681, -0.15862364042522395, 0.5078730901505033, -0.4802994132868982, 0.2994295462519936, 0.20326118085791042, 2.135354409513499, 0.24133923106733846, -0.5477713453859542, -0.15033435590975394, 0.12250854631462266, 0.23502848610275534, -0.32904661343279384, 0.7549818459850794, 0.06761791752150528, -0.0824214684439024, 0.26169057862635964, 0.26666381544778595, -0.16676331294526503, -0.1827047303337353, 0.030052004953636396, 1.242257689037025, 0.0028022171614193398, 0.30056976317885753, 0.1512244498863569, 0.2206290292875066, -0.9113186862435515, -1.9068900662689767, -0.020913449652869426, -0.23836383201385788, -0.054893429088521475, 0.17230099156686116, 0.13413713028265076, -0.9844576456259593, -0.37889351541791794, -0.8103845186203763, -1.3621623292195155, -0.032764258134236765, 0.9469187147643001, 0.4899127680242698, 0.5069987268566329, -0.7065969539338341, -1.316040135469142, -0.332332450605879, -0.2217169190927191, -0.4543798258374053, -0.3011831115755724, -0.6977746371265916, -0.0005967167489901226, -0.9102341587828603, -0.3247275463659552, 0.18795894378375053, -0.46283466639017656, -0.22129502793742759, 1.096973896894679, 0.7976294351910208, -0.19251427489215328, 0.4236299284274654, 0.8300265456868388, -0.4882439622865204, 0.9427244483522084, 0.5974626152838566, 0.17408641165400984, 0.011675899723150852, 0.18606618251479654, -0.14292614987119082, 0.05043166438629201, -0.7045091381242554, 0.10193308267769866, 0.5865601627446064, -0.472690012470039, 0.5793972805697717, -1.1493659833092824, -0.29039952559458787, -0.6639841117017108, -0.8788065481597024, -0.5579849400273623, -1.0716112906770632, 0.26137065948230953, -0.05026203838643569, 0.5467926288625198, 0.41373829242149557, 0.29767061274006257, -0.3553906663614478, 1.0007200039474273, 0.15225809259662348, 0.007237849467493934, -0.2080259534441615, 1.2091627149245614, -0.8998674754800908, -0.44825499909621036, 0.11397249623358242, -0.11029474319745831, 0.7920763619285651, -0.5824826943901296, 0.15690937532972637, -0.2719749144008126, -0.4034892365220408, 0.7059715446052659, 0.15492468660787828, 0.7311636965354325, -0.6414348406335277, -1.0321737690901784, 0.5277188551647631, 0.7987126790029708, -0.24897187500772436, -0.15488871758975684, -0.18302696987934397, 0.02644935246292111, 0.9340424189533311, 0.323468521044012, 1.041529742522434, 0.46207724875569506, 0.8800931325600805, -0.38825014954235454, 0.31899300552539583, -0.22500146767361837, 0.5972494148398481, -0.6191902435576709, 1.024609142214318, 0.217454246904428, -0.27124002691878535, 0.0058635207779827656, -1.3864434423895247, -0.48214464826041414, 0.02828959159681568, -0.9624460636579455, 1.0055164763485231, -0.6916643750467731, -1.228206750300362, -0.14543065909579722, -0.4346906824241413, 0.42214765244973196, 0.7942719685275779, 0.8387753610352733, 0.4582837213044678, -0.560317192835205, -0.41059849349321426, -0.37214999478724653, -0.13601187406148266, -0.26618066327533757, 0.11837628190867731, 0.5173540254707061, -0.4524002114661621, -0.6701086816323942, -2.516666928791542, -0.1873910017267553, 0.02900546627437099, -0.011276057501243022, -0.5749017434103877, -0.3913072891006987, 1.1533593316748316, 0.8119423456263529, -0.7128139681420331, 0.4208977508687651, 0.6052302724809641, 0.6880146240879855, -0.46207341569609334, 0.6712355929999965, -0.7527233046190124, -0.3387787678905176, 0.6353160118008763, 0.6204034588289615, -0.006428486794637739, 0.2282840611536961, -0.29931479698107266, -0.7458438232463551, 0.08687638544222874, 1.6639334593085973, 0.9667211461082393, 1.1597986320539513, -1.104253394140918, 0.2010968303098981, 0.03368170350051434, 0.15640842554891782, 1.1290284988344141, -0.5600141915333927, 0.13898852669102865, -0.8424788471036656, -0.4264714909251458, 0.9437790045587406, 0.06187514304564077, -0.39100339800085643, -0.5250152167523936, -1.9036879998134923, 0.1958872945125304, -0.6769719552871493, 1.2925303894009763, 0.5047692541560859, -0.44888666678139105, 0.5558480568599629, -0.1687095168912151, 0.46210696664235174, -0.6770653966665017, -1.1846139786382825, 0.27776640689496024, -0.7658794264038801, 0.5907779117804967, 0.7275389182900204, 1.1060731156654648, -0.00862434780541928, 0.9088227855449313, 1.1100319901764413, -0.061805516639654265, -1.0411039771088566, -0.3667871011324123, -0.3507609164070791, -0.0856535425746859, -0.8538844820595257, 0.5650703276582127, 0.39533993634239195, -0.4459826831884517, -1.5615536474705534, -0.6403263523047449, -0.65377759146627, -0.5506493524943057, -0.4166940658031631, 0.6484625441541736, 0.35406171705132977, 0.2804743158864472, 0.005695692414606283, 0.2929862606364081, 0.15132683231150112, 0.16923117177058017, 0.8123711466922717, -0.3235022049767691, 0.4669292218106049, 0.16370356285753626, 0.05371871113822333, 0.7444768268468415, -1.0312302151718322, 0.1364844400695024, 0.6835564898287225, 0.31522843612250023, 0.8577080046910767, 0.44079165246836577, -0.16570409477490192, -0.10926827013356441, 1.117491940931732, 0.5269740625259396, 0.05654900674434046, 0.18813580996894094, 0.20881221917066306, 0.29439925066968403, 0.6381110104879515, -0.2807587666956428, -0.6604057348660541, -0.054960860167852406, -0.4687319939812054, -0.28102422885401473, 0.7111596172922605, -1.1102028294962683, -0.03626844360964571, 0.7817980262102702, -0.6395922645796241, -0.3071631071052278, -0.08479765294602955, -0.6026915009804131, 1.4358808221634602, 0.08223280524660428, -0.6293267418897562, -0.33253724844151666, -0.401045253036248, 1.037187559118187, 0.05872094399546056, -0.5248638125216747, 0.9000997989000685, 0.30241568636562505, 0.5461731275585296, 0.43053914279801503, 0.7919658492856841, -0.37571099043381456, 0.007320304189792903, 0.09424173862040652, -0.6045739958133041, -0.4370766924910457, 0.3259767194729469, -0.480088016069768, 0.541896355546556, -0.34609285264149087, -0.27682583874851097, -0.15177983973304354, -1.0294076980534084, -0.1584115925930248, -0.2963916236750806, 0.4055748578712694, 0.8171853718121386, 0.17491773932108767, 2.022009114394718, 0.0845337537694548, 0.1631804928249877, -0.5894349471708628, 0.25860529636682533, 1.5426786254422835, -0.9318711048562953, 0.7685105816726182, 0.6006281531352584, 0.3755455701350459, -0.20880796532133195, -1.3524756201316377, 0.4414268307868412, -0.3339051776494506, -0.9234590766383146, 0.16857537189103294, 0.22540711303739788, -0.9991294847932151, 0.5756008323492907, -0.8574735749473718, -1.003409242699572, 0.8296194867369743, -0.011099206717458078, 0.29785406326150965, 0.17693110495759323, -0.7213733934628602, -0.8714846861175337, -1.0767994566802463, -0.19353613726279123, -2.4950023092493527, 0.011956109652863913, -0.4106916712891093, -0.3721360316746963, 0.2558962530883645, -1.0900883598258675, 0.525283947886217, 0.542702123416332, 0.5037256495604614, 0.34986415058372916, -0.09207701647015736, -0.281649631188067, 0.7359664943215106, 0.7913389322984368, 0.2996877331541656, 0.12680191467382296, 0.1406555312662471, 0.5364180600212685, 0.12446304064075722, 0.4773386709532209, 0.7825490286782669, 0.5794831996942741, -0.5155238382468272, -0.7561197961229695, 0.31672949674420264, -0.2331605145675536, 0.010508594476046946, -0.22328145285700032, 0.5090612052470321, 0.22115060656308005, -0.8178561675883356, 0.11876760392131719, -0.3895409138771079, -0.718584252261844, -0.5880499319538227, -0.5849459085806422, 0.15093147503043677, -0.6785225245972405, 0.234803052755624, 0.016642458905894632, 0.04137123437206408, -0.07364576490877166, -1.0992341948365114, -0.5940617193060836, -0.5798123952941354, 0.6543620799797193, 0.11618847068616947, -0.5850122283670388, 0.8959005740976143, -0.30856941038416563, 0.8977451058867021, 0.7748521890716403, -0.22919683412391498, -0.22644378424806286, 0.33893822954657216, -0.5577325256656661, -0.1369798508813432, -0.44474383281445184, -1.0484464720943887, 0.6796612972944825, -1.0327008763993495, 1.115053294814323, -0.16102612558450288, 0.4113278483629594, -0.07553623797156239, 1.4005847068119137, 0.7361209389114536, -0.011570820283216578, 0.5906980585154762, 0.39885755429590086, -0.5388794909469897, -0.9240433712236662, -0.08031997038496039, 0.151237974312127, -0.7276329118876149, 0.7212148859101477, -0.6181421649297499, -0.8848661240064943, -0.01787148970211094, 0.3165239240204963, 0.5634917431626889, 0.0857476128713786, 0.06279863688770954, 0.37811880893193117, 0.7774700748609861, -0.3218185851735621, 0.01366315093152169, -0.31380526609678105, -0.926790770370009, -1.4606491019779482, -2.327211907580501, 0.04208629988110149, 0.455899974770054, 0.7150526639600739, -1.0322120641673416, -0.5749941537973811, -0.5644881079530426, 0.1920697777338527, -0.40193006743679616, -0.5964278620023598, 0.3704734035377238, -0.1745956052213827, 0.8591020401598309, -0.43848201667274783, -0.4142439780651473, 0.9347627765122386, -0.5804607973208027, 0.057115260653045195, 0.3943350171821329, -0.26836393442778167, 1.174406540177229, 0.2136939315360367, 0.3993430421743599, -0.22253286947425704, 0.7297612548302598, 0.7592793850813644, -0.7077829493033859, -0.038731410416733204, 0.799311725751778, -0.1688207479926165, -0.0753441916487141, 0.11388028094582647, -0.4288537047583571, -0.40010689769469054, 0.13948159139740487, 1.1521560495863141, 0.042437701441653077, 0.6593551511062846, -0.26025052183197295, 0.3200881318147196, -0.2308058690111665, 0.3357074357077594, -0.37703003416239744, -0.7496319076552507, -0.12751581991265215, 1.1587814866391515, 1.1380782476448719, -0.47154840723284375, 0.4766781412004491, 0.783129827053772, -0.038262193108909784, 0.5401210213216909, 0.44934482594696185, -0.47258018361565896, -0.23232922405218512, 0.42477321416774777, -0.5439082367003572, -1.7130517886137637, 0.6210834421886224, -1.2884671284870632, 0.8208162262595662, 0.3510311736604122, 0.7255744280488393, 0.3557228431313019, -0.3219715148081375, -0.20694737911984923, 0.09896202805553302, 0.2265736684739837, 0.0799355514198026, 0.06417180262911311, -1.2399998193292865, -0.9252972201659697, -0.1185698650520827, 0.06973387708381508, -0.5381380797667702, -0.05583941308649606, 0.11533017793833238, -1.6181576514435547, -0.7077298782258928, -0.793145147932831, -0.19219338371712996, -0.3110052832183652, 0.03341641884448719, -0.46324997531358436, 0.4002684855359313, -0.8886853410796319, 0.663828597782634, 0.11393272967134792, -0.20307175833116028, 0.6414733217686788, 0.7996250978002303, 0.12761274133306197, 0.6313768228997872, 0.9182908056327324, -0.3801096700791933, -0.04140312666806646, -0.10602256188438727, 0.6705857856465576, -0.058280468705997825, -0.215832093238264, 0.6589597787102677, -0.3672710422592447, 1.05616082816916, -1.3963759484501284, -0.5669923943077374, -0.33584989560030665, -0.14486252354851709, -0.683615087689728, 0.13035680027751292, 0.9447359784933592, -0.038496093596942935, 0.7852055287933107, 0.9036538604252314, 0.07821152006629237, 0.9205740227641434, -0.32441669308140564, 0.2440449245521986, -0.6616933458514486, -0.3653232213755172, -1.359965836669698, -0.30363250686266874, 0.07039767711967423, -0.5733892107762095, 0.39304880433617856, 0.18067286311488642, 0.5857041382012727, 0.49179992775118153, -0.1963801129632438, -0.3235975875396611, -0.9144436665145225, 0.052005188883381126, 0.42531125980320766, -0.5104018588282675, 0.3704874361242842, -0.627142891608005, 0.03248994274275907, 0.6741467242675337, -0.49472150543351173, -0.38926870632009053, 0.3282386687806563, -0.21039847624799551, 0.8612048027316691, 1.5495284693835447, -0.3360007618469036, 0.8526351079860983, 0.2213926851571612, 1.1883058136700992, 1.0068456035368634, -0.11978396476351773, 0.06850414661655461, 0.2992440000312638, 0.2859951799636714, -1.0893161165972487, -0.036700656974317826, 0.31281179493820466, -1.0227745946044622, -0.7650940360142858, -0.3395322645131047, 0.036857148831049936, 1.4608646764887827, 0.6483286548091498, 0.43373189128590445, -0.07037463892425243, 0.40303745181767325, -0.8994855803154269, -1.1427195873653868, 0.11708587686310448, 0.6175562766385255, -0.04448542706468307, 0.1948565159532031, 0.7017904545636444, 0.36423098977133883, 0.39658787266525825, -1.0383473760989086, 0.2207624437690263, 0.03673846503548632, -0.0701775540949293, -0.23945558528001903, 0.3249989971855287, 0.35886480569120877, -0.9564670030648721, -0.9279680213456115, -0.7205223014702837, -0.07840043897257339, 0.4531757932094464, 0.3562030012051318, -0.47899831416022265, -0.58961641974711, -0.01807743549776019, 0.1681758450660983, 0.0014824951721042626, 0.89414818133746, -0.8165558815306748, 0.13948374777070882, 0.5472613780989639, 0.02297864242696198, 0.6016266977940102, 0.788036425677849, 0.8129154639656869, 0.43497239607322347, -0.22832251543742274, 0.5371318438282822, -0.2547434352962056, -1.1997165533931122, 0.7881024095895679, -0.06643591709823919, -0.6884190407004217, 0.7672844807391962, 0.8403899720894605, -0.997603009096645, 0.08232182584592188, -1.436745705791623, 0.4298858249468542, -0.3009228142465043, 1.180473024071539, -0.34898799390259433, -0.8180804338995282, -0.7571497959219133, 0.4784816701457471, 0.6211434762633057, 0.4431505502193755, 0.2869968675332552, -0.2126869351716494, 0.923301995584213, 0.35473149588776093, -0.04837828876648801, 0.6557782725648266, 0.3682911287189666, 0.9165194784886086, -0.6958559399868225, -0.07334321549912683, -0.6650190970354664, 0.4321749537742946, 0.6044560804983311, 1.2277196689804557, 0.4711074597585156, 0.4225588233051616, 0.2857702547096838, 0.3661919690199239, -0.5356261475311411, 0.5850683237252117, 1.1950903263136883, -0.1531609806822928, 0.1496298012443919, 1.3436181691172069, -1.0047243254006197, -0.3583687059100694, -0.23598623934172855, 0.7158818638576556, -0.2988420045262702, -0.056057413772951106, 0.26494142084080546, -0.15031265801819094, -0.83822772593685, 0.33126406326780344, 0.1765614221013472, 0.5538350339598153, 0.2824756190685067, -0.4961766214054965, -1.0010852003537796, -0.23669040105850137, 0.6913407357440144, 0.06338601142855876, 0.4881103226157048, -0.33464117716252245, -0.5123071216768561, -0.50461576684519, 0.06974688081757777, -0.8211356313621839, -0.31787250942922074, 0.3356362833598417, -0.5344162052433985, 0.3158445458149776, 0.008431271365961057, 0.31162155547439585, 0.06309423400171446, -0.4869707741409631, 0.06417263464341899, 0.7008432407005941, -1.0210689108029956, 0.7480919938955585, 0.5166908291195013, 0.9603959498528674, 1.0281064131144462, -0.626542111508879, -0.9016493138301044, -0.3618063770315591, -0.5797486004749387, -1.611949640571554, 0.6538301837025703, 0.1315611371358996, 0.9143932769824046, 0.331344183075102, 1.2171126799371166, 0.592182476090828, -0.46461921901897574, -0.03544347281133852, -0.12545753457936742, 0.13174227245557465, 0.10496086758435155, -1.148001009545067, -0.9730092694254796, -0.007541657554329436, 0.4941887011044471, -0.03685560207036751, -0.29506300364519855, -0.21246321730307677, -0.19831918319549668, -0.15815294646077388, 0.968228730976091, 0.7979013010535762, 0.13502254646275946, -0.7529250899437328, -0.5549152843594516, -1.1008299452048949, 0.13089229361763122, -0.5825594081680333, 0.44406624202481, 1.053463038105754, -0.23999474759873618, 0.22829491722784112, 0.9413822428437776, -0.6355036148982907, -0.4052873915678022, 0.3314439343625866, -0.023478143007943715, -0.021682537351435764, -0.9660711671109756, 0.4563589052274028, 0.5581186023751846, 0.5529985195310368, 0.7137126569552686, -0.5023752392643969, -0.3914916024792286, 1.2875573803341531, 0.53046910737168, -0.06991420834761268, 1.6747180656529028, 0.42285915043347816, 0.029254636161361133, 0.14476962584603004, 0.3936955287642753, -0.21961057357179348, 0.035595502251407694, 0.2565579499748103, 0.34016927008293696, 0.9377528985425481, 1.7459792013450286, 0.9731970881988432, 0.270956104706955, 0.4075224065375013, 0.9066268114599937, 0.16718682354727699, -0.5316450723964469, -0.5440237167353055, 0.022696051240070524, 0.4054671739613112, 1.2280519254452393, 1.1065349727486433, 0.20824579553486108, 0.6574926281012543, -0.5192668819039494, -0.9115239724308729, -1.640211812123684, 32.855744636547364] 